{"layers": [{"weights": [[0.10113094002008438, -0.317422091960907], [-0.4827384650707245, -0.1408350169658661], [-0.970281183719635, -0.034512974321842194], [-1.3948463201522827, -1.1739472150802612], [0.7434101700782776, -1.3575245141983032], [-0.2672245502471924, -0.4908590316772461], [0.5506194233894348, -1.026336431503296], [-0.6541066765785217, 0.14392609894275665], [-0.8816254138946533, -0.433569073677063], [0.0489594042301178, 0.37170174717903137], [1.0166774988174438, 1.0477436780929565], [0.3535117506980896, 0.1411006599664688], [-0.18193592131137848, 0.6691112518310547], [-1.3579418659210205, -0.8390709757804871], [0.7567611932754517, 0.9133063554763794], [0.3222500681877136, 1.6841320991516113], [-1.4879751205444336, -1.0948244333267212], [0.6548557281494141, 0.10763063281774521], [-0.21767647564411163, -0.13624808192253113], [0.10585089027881622, 0.40243974328041077], [0.7299597263336182, 0.9210602641105652], [0.7919644713401794, 1.0373055934906006], [-1.137993574142456, -0.9785894155502319], [-0.6988192200660706, 0.11031007021665573], [0.35616356134414673, -0.4631577432155609], [1.3918054103851318, -2.3474512100219727], [-0.37676385045051575, -0.19548119604587555], [1.5270442962646484, -2.1605288982391357], [0.5783758759498596, -0.4615362882614136], [-0.12968264520168304, -0.510066032409668], [-1.4340341091156006, 0.7342321276664734], [-1.3680553436279297, 0.34620243310928345], [-1.6134229898452759, 1.5823051929473877], [-0.49717599153518677, -0.3020743429660797], [0.22931785881519318, 0.9645153284072876], [0.9398975372314453, -1.6141438484191895], [-1.179511547088623, 1.4742395877838135], [0.5292996168136597, -1.784840703010559], [-0.6514294147491455, -0.44896015524864197], [-0.06965433061122894, 0.8066484332084656], [0.9453096389770508, -0.961890697479248], [0.6061272621154785, 0.6960552334785461], [0.5997025370597839, 0.5202300548553467], [-1.4394593238830566, 0.9005512595176697], [0.39373651146888733, 0.8139833807945251], [-0.7860057353973389, -0.8611477017402649], [0.4131437838077545, 1.1096402406692505], [-1.2902311086654663, -1.3670086860656738], [0.7579114437103271, 1.17325758934021], [-1.3439908027648926, 0.01781420037150383], [-0.38856133818626404, 0.29720285534858704], [-0.3959619402885437, -0.9184044599533081], [-1.623140573501587, -0.780090868473053], [-1.1143234968185425, 1.0566800832748413], [-0.7376964092254639, 0.34782710671424866], [-0.6669972538948059, -0.21237173676490784], [-1.1321842670440674, 0.3124696910381317], [-0.16035096347332, -0.22946448624134064], [-1.3116956949234009, -1.4765095710754395], [-1.064792513847351, 0.20988118648529053], [-0.750254213809967, -0.22883036732673645], [-1.835618257522583, 1.1620509624481201], [-0.04483475163578987, -0.5489329099655151], [0.6534479856491089, 0.13771851360797882]], "biases": [0.13962148129940033, -0.7703295946121216, -0.8404490947723389, -0.2030491679906845, -0.37790408730506897, -0.8656073808670044, -0.39459189772605896, 0.09006627649068832, 0.05247892439365387, -0.13325218856334686, 0.3598622679710388, -0.9641937613487244, -0.15173259377479553, -0.12684716284275055, -0.016941197216510773, -0.09004230797290802, 0.47871607542037964, 0.049358077347278595, -0.41942739486694336, -0.8994768857955933, 0.02422241121530533, 0.06854241341352463, -0.19903385639190674, 0.05044049024581909, -0.10330703109502792, -0.23050116002559662, -0.9818229675292969, -0.2522152066230774, -0.6130219101905823, -1.1643480062484741, 0.06210944429039955, 0.09848561137914658, 0.1161431148648262, -1.1819318532943726, 0.4414595663547516, 0.08965938538312912, 0.07364164292812347, -0.15794651210308075, -0.07176124304533005, -0.005757936276495457, -0.0292581245303154, -0.07967996597290039, -0.8505821228027344, -0.14710041880607605, -0.18149586021900177, -0.043245960026979446, -0.04369135573506355, 0.1682046502828598, 0.1733129471540451, 0.18760649859905243, 0.11608931422233582, -0.03144155815243721, 0.25096383690834045, -0.23336899280548096, -0.19879405200481415, -0.8088181614875793, 0.054892368614673615, -1.027086615562439, 0.20692314207553864, 0.14635664224624634, -0.3028953969478607, -0.22798563539981842, -0.13204531371593475, -0.6772521138191223], "activation": "relu"}, {"weights": [[0.2861097455024719, -0.5579391121864319, 0.5416663885116577, 0.8669941425323486, -0.480583518743515, -0.6776149272918701, -0.3445819020271301, -0.33844712376594543, 0.13917703926563263, -0.5267860889434814, -0.8935635685920715, 0.4953813850879669, -0.1961422711610794, 0.6013895273208618, 0.049482136964797974, -0.43741005659103394, 1.598814606666565, -0.39275479316711426, -0.33683812618255615, -0.11452779918909073, -0.5228235125541687, -0.7305571436882019, 0.8825976848602295, 0.2684617042541504, -0.6319252848625183, -0.47497618198394775, -0.5668455362319946, -0.3302145302295685, -0.6242913603782654, -0.674699604511261, -0.29213887453079224, 0.3926987051963806, -0.5758275389671326, -0.5470708608627319, -0.8867779970169067, -0.6916469931602478, -0.542850136756897, -0.5803537368774414, 0.03041975200176239, -0.49219828844070435, -0.3379783630371094, -0.7711960077285767, 0.4858234226703644, -0.7471444010734558, -0.550376296043396, 0.8812258243560791, 0.06877149641513824, 1.089599370956421, -0.7836934924125671, 0.5754370093345642, -0.7505565285682678, 0.8895443677902222, 0.576812744140625, -0.5637301802635193, -0.7532135248184204, -0.041685111820697784, 0.30960944294929504, -0.3345913887023926, 1.1302679777145386, -0.006580005865544081, 0.26151472330093384, -0.5186744928359985, -0.24587255716323853, -0.4203397035598755], [-0.4112914502620697, 0.25215834379196167, -0.48669660091400146, -0.8688228130340576, -0.506743848323822, 0.14655974507331848, -0.6354084610939026, -0.08899196237325668, -0.7487255334854126, -0.5903684496879578, 0.2721787989139557, -0.5934814810752869, -0.474668949842453, -0.7124738693237305, -0.16839900612831116, 0.43720218539237976, 0.09282073378562927, -0.5011492967605591, -0.6639700531959534, -0.5848724246025085, 0.4559834599494934, 0.22589795291423798, -0.6688722372055054, -0.4337460696697235, 0.18723011016845703, -0.6582434773445129, 0.5014873147010803, -0.6912704110145569, -0.46561697125434875, 0.6003348231315613, -0.4750502109527588, -0.8094026446342468, -0.5727789998054504, -0.6908244490623474, 0.1410958617925644, -0.49252045154571533, -0.4729536473751068, -0.5892187356948853, -0.6555780172348022, -0.41808533668518066, -0.4625411629676819, -0.07842447608709335, 0.01335179340094328, -0.411128431558609, 0.5484291911125183, -0.8144879341125488, 0.6082273721694946, -0.6152826547622681, 0.3607296347618103, -0.8304328918457031, 0.22599011659622192, -0.5131462812423706, -0.8923676013946533, -0.5108638405799866, -0.09667276591062546, -0.7147843837738037, -0.7755110263824463, -0.7101163864135742, -0.5335320234298706, -0.2676413059234619, -0.6079309582710266, -0.6029873490333557, -0.7013779282569885, -0.48571351170539856], [0.18610438704490662, 0.17219510674476624, 0.5614499449729919, 0.7356277108192444, -0.5667942762374878, 0.5232991576194763, -0.37451475858688354, 0.2386307418346405, 0.03377089276909828, -0.14738774299621582, 0.6075444221496582, 0.5585412383079529, -0.1682945042848587, 0.6855765581130981, 0.7721644639968872, 0.4070490598678589, 1.362818956375122, -0.05004550889134407, -0.22623398900032043, -0.2380107343196869, 0.8344486355781555, 0.37433138489723206, 0.7573609948158264, 0.054065585136413574, 0.23388658463954926, -0.8030035495758057, 0.6468589901924133, -0.5347723960876465, -0.18942037224769592, 0.022477367892861366, -0.5675545930862427, 0.30607882142066956, -1.1481214761734009, -0.35960739850997925, 0.10163285583257675, -0.828338086605072, -0.8610631823539734, -0.9426055550575256, -0.03191962465643883, -0.49389714002609253, -0.2952035665512085, 0.5371356010437012, 0.5860505700111389, -0.7463523745536804, 0.17434009909629822, 0.5328958034515381, 0.9471771121025085, 1.1432057619094849, 0.705111563205719, 0.2306031435728073, 0.35605907440185547, 0.7817506790161133, 0.5131941437721252, -0.938959002494812, 0.28642067313194275, -0.13904550671577454, 0.23397541046142578, -0.3985021114349365, 0.9633663296699524, 0.09116964042186737, 0.38525882363319397, -0.7231002449989319, 0.0430561862885952, -0.19788795709609985], [0.15140043199062347, 0.49357718229293823, 0.4837009012699127, 0.5630640387535095, -0.45524898171424866, 0.1282755732536316, -0.3610605299472809, 0.014681144617497921, 0.14973652362823486, -0.17709733545780182, 0.18675370514392853, 0.5451710820198059, -0.33983033895492554, 0.3972793221473694, 0.6086968779563904, 0.09081774950027466, 1.1119924783706665, -0.18443700671195984, -0.26751983165740967, -0.31927040219306946, 0.7700552940368652, 0.20189321041107178, 0.7679269313812256, 0.06228913366794586, -0.060475464910268784, -0.7431551218032837, 0.5284615159034729, -0.3627270758152008, -0.45210519433021545, -0.30994951725006104, -0.4884852468967438, -0.07834713160991669, -0.6009830832481384, -0.713235080242157, 0.003983232658356428, -0.6919409036636353, -0.5866470336914062, -0.6411842703819275, -0.2156287580728531, -0.5326904058456421, -0.2964830696582794, 0.32634618878364563, 0.5615073442459106, -0.6240836977958679, -0.04651794210076332, 0.09434312582015991, 0.9829039573669434, 1.1010310649871826, 0.4754197895526886, 0.11451471596956253, 0.08013405650854111, 0.04903405159711838, 0.17630276083946228, -0.3839742839336395, -0.05322900786995888, -0.19089388847351074, -0.05152121186256409, -0.37324780225753784, 1.0329900979995728, -0.19067586958408356, 0.21976882219314575, -0.48282596468925476, -0.1477958858013153, -0.13707032799720764], [-0.08767147362232208, 0.3091411292552948, -0.8871349096298218, -0.4935245215892792, -0.7769286036491394, 0.5254979133605957, -0.8753495812416077, 0.30712395906448364, -0.8475099802017212, 0.3698332905769348, 0.5835424661636353, 0.5326420664787292, -0.8042778372764587, -0.7323595285415649, 0.6389054656028748, 0.5154274702072144, -0.04355333745479584, 0.1889861822128296, -0.44897228479385376, -0.7262369394302368, 0.5785475969314575, 0.6078161001205444, -0.5000764727592468, -0.22391559183597565, 0.26039406657218933, -0.9623250961303711, 0.6795939207077026, -0.9276596903800964, 0.19419676065444946, -0.10404397547245026, -0.29182168841362, -1.1906744241714478, -1.066021203994751, -0.21588681638240814, 0.6315988302230835, -0.9877080321311951, -0.9730205535888672, -0.7163872122764587, -0.43413010239601135, -0.6387301087379456, 0.04944269731640816, 0.6452123522758484, 6.17930269241333, -0.3504754602909088, 0.5897401571273804, -0.8337733149528503, 0.6932606101036072, -0.6419685482978821, 0.5934543013572693, -0.9176640510559082, 0.4768948554992676, -0.7384739518165588, -1.0814059972763062, -1.0110639333724976, 0.32234933972358704, -0.7759108543395996, -0.8417380452156067, -0.6712473630905151, 0.48886024951934814, -0.0375177264213562, -0.7491021156311035, -0.6334989070892334, -0.12655289471149445, 0.061258163303136826], [-0.6654994487762451, 0.030000105500221252, -0.5754403471946716, -0.6930228471755981, -0.5550814270973206, -0.551393985748291, -0.47881972789764404, 0.6022583842277527, -0.5738027691841125, -0.7169623374938965, -0.5450124740600586, -0.6997290253639221, -0.11010812222957611, -0.6484358906745911, 0.018221378326416016, -0.6312529444694519, 0.11127157509326935, -0.5570997595787048, -0.49887552857398987, -0.49466413259506226, 0.7068793177604675, -0.6942275166511536, -0.5126181244850159, -0.0940423309803009, -0.5792453289031982, -0.6711638569831848, 0.7250162959098816, -0.57286536693573, -0.6649603843688965, -0.6903499960899353, -0.07793499529361725, -0.5023655295372009, 0.11331111192703247, -0.4836834669113159, -0.617601215839386, -0.5326184034347534, 0.12257283926010132, -0.5221551060676575, -0.5128309726715088, -0.10720102488994598, -0.5087383985519409, -0.6966345310211182, 0.09230892360210419, -0.05705980956554413, -0.6079303026199341, -0.5135025978088379, 0.7174280881881714, -0.09198740124702454, 0.5595162510871887, -0.7038675546646118, -0.6659160852432251, -0.7083405256271362, -0.7023656368255615, -0.0715656727552414, 0.662896990776062, -0.7080370187759399, -0.6791096329689026, -0.691103458404541, -0.11961421370506287, 0.5142383575439453, -0.7230575084686279, 0.017367586493492126, -0.6084228157997131, -0.47738245129585266], [-0.6424747705459595, -0.12360760569572449, -0.6155120134353638, -0.523753821849823, -0.5417379140853882, -0.6426726579666138, -0.6017499566078186, 0.5386713147163391, -0.6880415678024292, -0.6121515035629272, -0.6593158841133118, -0.5790258049964905, -0.017598852515220642, -0.6834245324134827, 0.036231622099876404, -0.6605249047279358, -0.0165223628282547, -0.6299890875816345, -0.5122842788696289, -0.6981356739997864, 0.5782891511917114, -0.556111216545105, -0.6627810597419739, -0.10610984265804291, -0.5403622388839722, -0.5505411028862, 0.5929572582244873, -0.5787939429283142, -0.6788825988769531, -0.6443631052970886, 0.09720942378044128, -0.6953250169754028, -0.05372403562068939, -0.5402970910072327, -0.644679069519043, -0.5376390218734741, -0.05332399904727936, -0.47592705488204956, -0.5989115834236145, -0.05461913347244263, -0.6417050361633301, -0.4917946755886078, 0.10434460639953613, -0.016390293836593628, -0.7185496091842651, -0.5326582193374634, -0.6743766069412231, -0.0921429991722107, -0.5067967772483826, -0.7248793244361877, -0.5974342823028564, -0.6876668930053711, -0.642760157585144, -0.10258179903030396, 0.5150512456893921, -0.4765743613243103, -0.5481064319610596, -0.7224337458610535, -0.0707823783159256, 0.5093885064125061, -0.6915061473846436, -0.08574628829956055, -0.6168592572212219, -0.5549664497375488], [0.6130057573318481, -0.01941978558897972, -0.5907798409461975, -0.3519444763660431, -0.5771467089653015, 0.21453502774238586, -0.8561952114105225, 0.7909978032112122, -0.29725024104118347, -0.1911167949438095, 0.005548875778913498, -0.5646880865097046, 0.8170799016952515, 0.10263626277446747, -0.08536365628242493, -0.7985327243804932, -1.763530969619751, -0.5971535444259644, -0.9932579398155212, -0.9824086427688599, -0.1301250159740448, -0.5161097049713135, -0.45063403248786926, 0.7383081316947937, 0.27510711550712585, -0.5157878398895264, -0.6075854301452637, -0.727536678314209, -0.765666127204895, -0.6457427144050598, 0.9537044763565063, 0.7021070718765259, 1.2169718742370605, -0.6634859442710876, 0.34200236201286316, -0.48828908801078796, 1.1736825704574585, -0.5553776025772095, -1.10822594165802, 0.9645895957946777, -0.9124483466148376, -0.36535072326660156, -0.6284035444259644, 0.9796118140220642, -0.6005873084068298, 0.42818745970726013, -1.0917013883590698, -1.3172582387924194, 0.23631790280342102, 0.5772938132286072, 0.7621376514434814, 0.31858745217323303, 0.19641424715518951, 1.0801531076431274, 0.694896399974823, -0.8732500076293945, 0.7794016599655151, -0.6816304922103882, -1.1409821510314941, 0.8203376531600952, -0.7654514908790588, 1.0026469230651855, -0.09176018089056015, -0.7058814764022827], [-0.12600034475326538, 0.6265929341316223, -0.09805504232645035, 0.13840100169181824, -0.5028142929077148, -0.0018881438300013542, -0.4234950840473175, -0.3278486132621765, -0.3895016610622406, -0.29737159609794617, -0.07002286612987518, 0.5714448094367981, -0.33723923563957214, -0.09633152931928635, 0.7980743646621704, -0.04238174855709076, 0.7347546815872192, -0.4336685240268707, -0.4226783812046051, -0.3313918709754944, 0.8760241866111755, 0.017228569835424423, 0.17054910957813263, -0.3674514889717102, -0.2527386546134949, -0.5062007904052734, 0.6007673740386963, -0.4888530969619751, -0.312020868062973, -0.38411322236061096, -0.4784369170665741, -0.2205381691455841, -0.6034670472145081, -0.4872908592224121, -0.34419795870780945, -0.6216722130775452, -0.5383737087249756, -0.34183254837989807, -0.3458579480648041, -0.4687337577342987, -0.4446083903312683, 0.2030441015958786, 0.6557861566543579, -0.41503235697746277, -0.20672304928302765, -0.1315796673297882, 0.44505009055137634, 0.63108229637146, 0.5568890571594238, -0.16890262067317963, 0.022525034844875336, -0.174957275390625, -0.2808452844619751, -0.45010805130004883, -0.09908052533864975, -0.3103295862674713, -0.3690899908542633, -0.4914605915546417, 0.7794575095176697, -0.2199239581823349, -0.31645697355270386, -0.3914416432380676, -0.25649410486221313, -0.34871283173561096], [-0.7524657249450684, -0.9289127588272095, -0.5346848964691162, -0.7113257050514221, -0.5219587683677673, -0.36059606075286865, -0.6338671445846558, -0.3706764578819275, -0.687385082244873, -0.6581010222434998, -0.38903361558914185, -0.5163951516151428, -0.4939589500427246, -0.48194873332977295, -0.40160080790519714, -0.40504035353660583, 0.05913901329040527, -0.7542176246643066, -0.5681782960891724, -0.6065203547477722, -0.2449529618024826, -0.5164660811424255, -0.5670008063316345, -0.7904237508773804, -0.3787003755569458, -0.774802029132843, 0.6284138560295105, -0.5913785696029663, -0.7516971826553345, 0.37660831212997437, -0.5678113698959351, -0.67239910364151, -0.7237772941589355, -0.7269067764282227, -0.5075939297676086, -0.554789125919342, -0.6581100821495056, -0.5487444996833801, -0.5909261107444763, -0.7064235210418701, -0.9549990296363831, -0.3374699652194977, -0.07878938317298889, -0.8666237592697144, -0.22672335803508759, -0.7100895643234253, 0.3655126988887787, -0.11639104783535004, -0.25650689005851746, -0.6962906122207642, -0.3534843921661377, -0.5867687463760376, -0.5311036705970764, -0.6459646224975586, -0.32420435547828674, -0.47675976157188416, -0.8925162553787231, -0.6256064772605896, 0.04143378138542175, -0.9120852947235107, -0.529971182346344, -0.721382200717926, -0.9190700650215149, -0.9648346304893494], [-0.34256255626678467, 0.3180449306964874, -0.6791995167732239, -0.799079418182373, -0.2575620114803314, -0.3992563486099243, -0.378227174282074, -0.3755605220794678, -0.7929861545562744, -0.7052100896835327, -0.715569794178009, -0.6015650629997253, -0.26280245184898376, -0.9152946472167969, -0.7742001414299011, -0.5997737646102905, -0.6213527321815491, -0.8437425494194031, -0.47280359268188477, -0.6657788753509521, -0.6791142225265503, -0.7670308947563171, -0.7882539629936218, -0.5060893893241882, -0.27577677369117737, 0.909117579460144, -0.5597394704818726, 2.076184034347534, 0.8720664978027344, -0.607613742351532, -0.47132372856140137, -0.587897002696991, -0.4731489419937134, 0.48832470178604126, -0.7299941182136536, 0.7447911500930786, -0.16130094230175018, 1.0361219644546509, -0.6974605917930603, 0.2369929701089859, -0.06627873331308365, -0.758463442325592, -0.6465628743171692, -0.28376534581184387, -0.6376184225082397, -0.7297776341438293, -0.7173139452934265, -0.5820462703704834, -0.8272124528884888, -0.7174555659294128, -0.34792524576187134, -0.6502426862716675, -0.7643175721168518, -0.428410142660141, -0.40297091007232666, -0.529327392578125, -0.5410320162773132, -0.4746958017349243, -0.5703537464141846, -0.4139055013656616, -0.6226662993431091, -0.3038784861564636, -0.9088582396507263, -0.49913766980171204], [-0.12708750367164612, -0.04703093692660332, 0.4603635370731354, 0.44943711161613464, -0.5138119459152222, 0.2836971879005432, -0.36154869198799133, -0.10221626609563828, 0.05926285311579704, -0.11608252674341202, 0.24659006297588348, 0.6153817772865295, -0.4767306447029114, 0.40955692529678345, 0.9892821311950684, 0.20151832699775696, 1.315521001815796, -0.2260230928659439, -0.12562574446201324, -0.23371301591396332, 0.9467272162437439, 0.2647245228290558, 0.7571656703948975, -0.21285998821258545, -0.06651899963617325, -0.6417170166969299, 0.6455686688423157, -0.43367448449134827, -0.2555156350135803, -0.06557506322860718, -0.6721229553222656, 0.05602274835109711, -0.6961067318916321, -0.22491392493247986, 0.05943203344941139, -0.7691354155540466, -0.8139501214027405, -0.2862217426300049, -0.12097056210041046, -0.7287445664405823, -0.2846606373786926, 0.8147150278091431, 0.6255409717559814, -0.739915668964386, 0.031950924545526505, 0.2527102530002594, 0.8416359424591064, 0.9053394794464111, 1.0337306261062622, 0.04224283993244171, 0.22893984615802765, 0.07517609000205994, 0.17517893016338348, -0.7142782807350159, -0.0889400914311409, -0.034328315407037735, 0.03602256625890732, -0.4495696425437927, 1.045653223991394, -0.31511664390563965, 0.29658523201942444, -0.7318084836006165, -0.18414703011512756, -0.17875057458877563], [0.2956533133983612, -0.17927752435207367, -0.05718309432268143, -0.6687447428703308, 1.0396636724472046, 0.0466306209564209, 0.970635712146759, 0.3049831688404083, -0.05925094708800316, 0.6096585392951965, 0.21965520083904266, -0.513482928276062, 0.46492999792099, -0.44968467950820923, -0.3832555413246155, -0.23092176020145416, -1.0765477418899536, 0.7434541583061218, 0.7492840886116028, 0.3410883843898773, -0.2989644706249237, 0.11045590043067932, -0.8286295533180237, 0.16982491314411163, 0.5045643448829651, 1.4889194965362549, -0.6590746641159058, 1.4101665019989014, 0.7321797609329224, 0.9449130892753601, 0.9859982132911682, 0.0385797843337059, 1.2909351587295532, 0.875326931476593, 0.5130531787872314, 1.6578657627105713, 1.2601250410079956, 1.8535362482070923, 0.1944032460451126, 0.8155552744865417, 1.1323800086975098, 0.04675403609871864, -0.5073487758636475, 1.0403012037277222, 0.2179403305053711, -0.1741960048675537, -0.5659573078155518, -0.8869795799255371, 0.029418889433145523, 0.02495546266436577, 0.17389033734798431, -0.32147109508514404, -0.20394417643547058, 1.0583546161651611, 0.18165110051631927, 0.20291948318481445, 0.3158684968948364, 0.652678906917572, -0.8759223818778992, 0.2967790961265564, -0.5272849202156067, 1.1093089580535889, 0.5451072454452515, 0.6818640828132629], [-0.06818448752164841, -0.8087741136550903, 0.19345137476921082, 0.37274283170700073, -0.40355804562568665, -0.6461189985275269, -0.2539578080177307, -0.30231615900993347, 0.037759821861982346, -0.42117932438850403, -0.6137708425521851, 0.5117575526237488, -0.19579069316387177, 0.19322258234024048, -0.6187039613723755, -0.5222311019897461, 1.143270492553711, -0.37882131338119507, -0.3701900243759155, -0.22913481295108795, -0.7242589592933655, -0.6397976875305176, 0.674360990524292, -0.21442832052707672, -0.5035953521728516, -0.4601525366306305, 0.05476422607898712, -0.49448665976524353, -0.48590222001075745, -0.6176513433456421, -0.5476405024528503, 0.05958389863371849, -0.7377097010612488, -0.4483538866043091, -0.6007838249206543, -0.5835644602775574, -0.5476241707801819, -0.5008761882781982, -0.17632441222667694, -0.5792222619056702, -0.6760807037353516, -0.5594985485076904, 0.7067257761955261, -0.5822519063949585, -0.4314248263835907, 0.10214976221323013, -0.6117730736732483, 0.8207405209541321, -0.5659220814704895, 0.06708692759275436, -0.7323994636535645, 0.17292486131191254, 0.15510468184947968, -0.45356279611587524, -0.6719211935997009, -0.015956098213791847, 0.037721287459135056, -0.4459027945995331, 0.9824888110160828, -0.09872882813215256, 0.11588092148303986, -0.6080614924430847, -0.3727986514568329, -0.46243995428085327], [0.3201553523540497, 0.3962837755680084, 0.4980659484863281, 0.9726104140281677, -0.842584490776062, 0.35285496711730957, -0.2439105063676834, 0.12598152458667755, 0.6711503863334656, 0.12257058918476105, 0.5025312304496765, 0.4882822632789612, 0.09612616151571274, 0.8938103914260864, 0.6182716488838196, 0.8868199586868286, 1.511479377746582, 0.11611080914735794, 0.11342461407184601, 0.43575823307037354, 0.564656674861908, 0.5842130780220032, 0.9094874858856201, 0.2933101952075958, 0.04397090896964073, -0.7773038744926453, 0.5504496693611145, -0.7497251033782959, 0.09790382534265518, 0.8200147747993469, -0.8084929585456848, 0.3537738025188446, -1.1247389316558838, -0.24723707139492035, 0.3672148287296295, -0.8208510279655457, -0.99266117811203, -0.8783605098724365, 0.792236328125, -0.5666444897651672, -0.05330049246549606, 0.5130926370620728, 0.5847837328910828, -0.8345552086830139, 0.6297647953033447, 0.8260564208030701, 0.581103503704071, 1.158130407333374, 0.5784720778465271, 0.5770190954208374, 0.0471738763153553, 0.829949140548706, 0.7764071226119995, -0.9331000447273254, -0.055770132690668106, 0.43123114109039307, 0.48930278420448303, 0.23726315796375275, 0.9937830567359924, 0.1629886031150818, 0.948121190071106, -0.8288633823394775, 0.5845668315887451, 0.07123590260744095], [-0.29070696234703064, 0.10608077049255371, -0.5172296762466431, -0.585106611251831, -0.9096712470054626, 0.530817449092865, -1.1865384578704834, 0.2982875108718872, -0.7204346656799316, 0.6113653182983398, 0.7033714652061462, -0.1244584172964096, -0.7995997071266174, -0.5019665956497192, 0.6055172681808472, 0.8956484794616699, -0.09464088082313538, 0.3231480121612549, -0.5734827518463135, -0.5361789464950562, 0.6438478231430054, 0.730540931224823, -0.5573269128799438, -0.41642919182777405, 0.34449413418769836, -1.0811470746994019, 0.5724039673805237, -0.8688820600509644, 0.3803589344024658, 0.6409268975257874, -0.22518761456012726, -0.9585055112838745, -1.1862150430679321, -0.3509819209575653, 0.5275941491127014, -0.8938134908676147, -0.9730345606803894, -1.0617315769195557, -0.8299597501754761, -0.6785064339637756, 0.20612789690494537, 0.6069040894508362, 6.678677558898926, -0.42073172330856323, 0.6255025863647461, -0.6835010647773743, 0.5077826380729675, -0.6042174696922302, 0.6942138671875, -0.8483087420463562, 0.44404998421669006, -0.7279365062713623, -0.8684157729148865, -0.8497320413589478, 0.38933101296424866, -0.6268792152404785, -0.750186026096344, -0.5449877977371216, -0.5831806063652039, -0.015117109753191471, -0.5853023529052734, -0.7035532593727112, 0.1265503317117691, 0.32821598649024963], [0.094950370490551, 0.08237116038799286, -0.096446692943573, -0.11979186534881592, -0.0819459781050682, -0.07067263126373291, 0.05926432088017464, -0.02419869787991047, -0.07578375190496445, -0.07768911123275757, -0.0943545252084732, -0.005998551845550537, -0.11587491631507874, 0.08937735855579376, 0.039931803941726685, 0.005026727914810181, 0.021544160321354866, -0.07146735489368439, -0.016671502962708473, -0.05173642933368683, -0.07710456848144531, -0.016829699277877808, 0.11602839827537537, -0.10839470475912094, -0.11612708121538162, -0.08036202192306519, -0.06462009251117706, -0.02172088250517845, 0.0764104574918747, 0.039794743061065674, 0.06646937876939774, -0.010265031829476357, 0.08032289147377014, -0.08766788244247437, 0.01644119620323181, -0.11688153445720673, -0.08922338485717773, 0.04977822303771973, -0.05703505128622055, 0.08928665518760681, -0.06915012747049332, 0.027812078595161438, -0.01940011978149414, -0.09047666192054749, 0.001937180757522583, 0.12255509942770004, -0.07628333568572998, 0.11092133820056915, -0.007614389061927795, -0.10297410935163498, 0.11724008619785309, 0.020738836377859116, 0.05061094090342522, 0.10846933722496033, -0.09077891707420349, -0.021955398842692375, -0.11695632338523865, -0.05599255859851837, -0.06949736177921295, -0.0687939003109932, 0.047162145376205444, -0.10296324640512466, 0.11516562104225159, 0.03869800269603729], [-0.0065966323018074036, -0.19554591178894043, -0.7246935963630676, -0.1074151024222374, -0.6862378716468811, -0.21166278421878815, -0.9026206731796265, -0.11637012660503387, -0.22156646847724915, -0.833503007888794, -0.34033623337745667, 0.6530903577804565, 0.022118940949440002, -0.1627102941274643, -0.48114651441574097, -0.41640612483024597, 0.36839058995246887, -0.7417590618133545, -0.8536124229431152, -0.8950628042221069, -0.35554200410842896, -0.712814450263977, -0.20829017460346222, 0.04853910952806473, -0.24155451357364655, -0.714881956577301, 0.5522326827049255, -0.762311577796936, -0.7830141186714172, 0.54914790391922, 0.9393328428268433, -0.05555560812354088, 0.5244836807250977, -0.6852787137031555, -0.3827829360961914, -0.5690628886222839, 0.4402816593647003, -0.7094821929931641, -0.3855050206184387, 0.25394245982170105, -0.8287031650543213, -0.8068572878837585, 0.4961201548576355, 0.2133459448814392, -0.4418831467628479, 0.05918913334608078, 0.04848456755280495, -0.35406380891799927, -0.2723231911659241, 0.013884017243981361, -0.09051463752985, -0.05799354985356331, -0.14259469509124756, 0.6052260398864746, -0.1457064151763916, -0.6273429989814758, -0.07314558327198029, -0.7622182369232178, -0.2565118968486786, 0.0200014840811491, 0.2265165001153946, 0.006352716125547886, -0.38067084550857544, -0.9843281507492065], [-0.45366770029067993, 0.7401900887489319, -0.674882709980011, -0.8357434272766113, -0.7924122214317322, 0.3567299246788025, -1.0215511322021484, -0.10880463570356369, -0.9569914937019348, 0.3979704976081848, 0.5679033398628235, -0.5095870494842529, -0.5640895366668701, -0.8665419220924377, 0.6098651885986328, 0.9454400539398193, -0.09465345740318298, 0.14788448810577393, -0.47465965151786804, -0.5185450315475464, 0.6325331926345825, 0.7448891997337341, -0.9471797943115234, -0.4633815586566925, 0.024186259135603905, -0.9105597138404846, 0.48657354712486267, -0.6818503737449646, 0.25781288743019104, 0.8415054082870483, -0.5457860231399536, -0.9904748797416687, -0.8687736988067627, -0.3401212692260742, 0.3662632703781128, -0.6856047511100769, -0.7644287943840027, -0.7447458505630493, -0.7097652554512024, -0.3495047688484192, 0.008832081221044064, 0.487326055765152, 6.560927391052246, -0.5865267515182495, 0.8451461791992188, -0.5868116617202759, 0.6224968433380127, 0.015849456191062927, 0.5811153650283813, -0.917145848274231, 0.1068761870265007, -0.6550099849700928, -0.6797276139259338, -0.6492311358451843, -0.03280352056026459, -0.6345332264900208, -0.7818586230278015, -0.48416218161582947, 0.03645257651805878, -0.4035778343677521, -0.5534619092941284, -0.6492214798927307, -0.08764464408159256, 0.09981828927993774], [-0.05876639485359192, 0.5664253234863281, -0.38159480690956116, -0.8002981543540955, -0.02078806422650814, 0.04542811959981918, -0.11708921939134598, 0.017084632068872452, -0.6765708327293396, -0.04712076857686043, 0.28279587626457214, -0.5776360034942627, -0.0230108629912138, -0.8822041153907776, -0.0063974265940487385, -0.37172043323516846, -0.5902389287948608, 0.020950308069586754, -0.0768117681145668, -0.42767807841300964, 0.39910998940467834, -0.03920958563685417, -0.8736913204193115, -0.13563314080238342, 0.29162728786468506, 0.23455548286437988, 0.5397419929504395, 0.09636170417070389, 0.043942924588918686, 0.1606418639421463, -0.28867673873901367, -0.452661395072937, 0.14434967935085297, 0.18117234110832214, 0.052276626229286194, 0.7188996076583862, 0.2730009853839874, 1.0294456481933594, -0.5282090902328491, 0.46362364292144775, 0.11137431859970093, 0.4313811957836151, -0.708690345287323, 0.27754348516464233, -0.23236607015132904, -0.8500286340713501, 0.08865456283092499, -0.5394934415817261, 0.0592808797955513, -0.47199514508247375, 0.10789266973733902, -0.6908961534500122, -0.790948212146759, -0.052140284329652786, 0.2600000500679016, -0.30863863229751587, -0.28516608476638794, -0.4542473256587982, -0.6569738984107971, -0.1318683922290802, -0.833208441734314, 0.024277273565530777, -0.2044905573129654, -0.02936113066971302], [-0.04383663833141327, -0.001138344407081604, -0.10018374025821686, -0.09778094291687012, -0.025432497262954712, -0.08455348014831543, -0.04864330589771271, 0.11580701172351837, 0.008213549852371216, -0.05232204496860504, -0.11442236602306366, 0.034675002098083496, 0.0993843525648117, -0.08759792149066925, -0.057159245014190674, -0.007497549057006836, -0.06835949420928955, -0.06533846259117126, -0.11867229640483856, 0.08719025552272797, 0.09841161966323853, -0.015067264437675476, -0.006225079298019409, 0.07895217835903168, -0.03299836814403534, 0.004563808441162109, -0.07232184708118439, -0.0919378399848938, -0.028947025537490845, -0.0735464096069336, 0.04378129541873932, -0.015911459922790527, 0.027591675519943237, -0.09693640470504761, 0.019984468817710876, -0.12364360690116882, 0.035801976919174194, -0.008977562189102173, 0.043802276253700256, -0.07749702036380768, -0.05760513246059418, -0.10157705843448639, 0.11323784291744232, -0.06767050921916962, 0.09431591629981995, 0.07154487073421478, 0.018310919404029846, -0.024978160858154297, -0.061498016119003296, -0.0973915159702301, 0.03954051434993744, 0.004242643713951111, -0.08457835018634796, -0.09121325612068176, 0.09800195693969727, -0.10959644615650177, -0.08311320841312408, 0.11200444400310516, -0.04617530107498169, 0.0767558366060257, 0.012427642941474915, -0.12313850224018097, -0.11688360571861267, 0.025269076228141785], [0.6240739226341248, -0.1232277899980545, -0.6815362572669983, -0.45419567823410034, -0.635709285736084, 0.07239153236150742, -0.7725304961204529, 0.4443438947200775, -0.3490408957004547, -0.374267578125, -0.22714340686798096, -0.5311293005943298, 0.6947823166847229, 0.06730927526950836, -0.5767556428909302, -0.6032247543334961, -1.5061454772949219, -0.849951982498169, -0.8918992877006531, -0.8269014954566956, -0.2926419973373413, -0.5293640494346619, -0.5801123976707458, 0.6851277947425842, -0.04909055680036545, -0.3739345967769623, -0.6631124019622803, -0.972250759601593, -0.5911864638328552, -0.5362875461578369, 1.085903525352478, 0.4525848925113678, 1.2681576013565063, -0.30654528737068176, 0.08286592364311218, -0.06244787573814392, 1.1027827262878418, -0.1880895346403122, -0.9735009074211121, 0.7745816707611084, -0.8178967237472534, -0.5105615258216858, -0.546771228313446, 0.7935967445373535, -0.7168688178062439, 0.12862254679203033, -0.7058693766593933, -0.982988178730011, -0.26300492882728577, 0.5064390897750854, 0.07026363164186478, 0.23699648678302765, 0.2516041696071625, 0.9568283557891846, 0.2157566249370575, -0.7747776508331299, 0.3534606397151947, -0.6958717703819275, -1.0054877996444702, 0.7089018225669861, -0.746618390083313, 1.0783238410949707, -0.45271924138069153, -1.0294227600097656], [0.06564055383205414, -0.721190869808197, 0.4712875783443451, -0.01851087063550949, 0.3897549510002136, -0.5307367444038391, 0.23685535788536072, -0.6898357272148132, 0.12575997412204742, -0.5710460543632507, -0.5671177506446838, 0.5797814726829529, -0.6504172086715698, 0.04010191187262535, -0.3476813733577728, -0.6513209342956543, 0.8662511110305786, 0.09607212245464325, 0.22675003111362457, -0.022621385753154755, -0.6685653924942017, -0.7194741368293762, 0.0681024044752121, -0.2968199551105499, -0.3897920250892639, 0.6155601143836975, -0.5616522431373596, 0.5318385362625122, 0.10560640692710876, -0.7592596411705017, -0.581908106803894, -0.30755555629730225, -1.0834152698516846, 0.3259908854961395, -0.6150861382484436, 1.0641838312149048, -0.9342247843742371, 1.1226234436035156, 0.17458893358707428, -0.5756766200065613, 0.30469170212745667, -0.8428351283073425, -0.04211863875389099, -0.59646075963974, -0.7468649744987488, 0.1255275011062622, -0.5828432440757751, 0.8275399208068848, -0.7240719199180603, -0.6527433395385742, -0.68680739402771, 1.1449284553527832, 0.10110384970903397, -0.6792539358139038, -0.6241446137428284, -0.17610077559947968, -0.5947973132133484, -0.07778898626565933, 1.1278696060180664, -0.6366243362426758, -0.5175696611404419, -0.5359341502189636, 0.10986334830522537, -0.020610176026821136], [0.17554476857185364, -0.7814459800720215, 0.8634612560272217, 0.7574797868728638, -0.6728587746620178, -0.554882287979126, 0.4338926672935486, -0.368489533662796, 0.9073207378387451, -0.49834683537483215, -0.7110747694969177, 0.5269873738288879, -0.07580015063285828, 0.6728357076644897, -0.5416427850723267, -0.711014986038208, 1.6440201997756958, -0.06268791854381561, 0.2971413731575012, 0.3594183325767517, -0.7621006369590759, -0.7055327892303467, 0.8972058892250061, 0.06449656188488007, -0.4710140526294708, -0.5912647247314453, -0.07452791929244995, -0.29287365078926086, -0.704358696937561, -0.6173340082168579, -0.528722882270813, 0.39935410022735596, -0.663354754447937, -0.5256405472755432, -0.6852876543998718, -0.5547662973403931, -0.4650176465511322, -0.6458278894424438, 1.0070610046386719, -0.7290100455284119, -0.7197030782699585, -0.6341420412063599, 0.6105062961578369, -0.8279089331626892, -0.75304114818573, 0.3797456622123718, 0.1073557436466217, 1.1282655000686646, -0.6773358583450317, 0.3113445043563843, -0.5677088499069214, 0.25787967443466187, 0.6050534844398499, -0.342050701379776, -0.8365069031715393, 0.8327155709266663, 0.13494567573070526, 0.14789828658103943, 1.0242003202438354, -0.23456472158432007, 0.8673057556152344, -0.5278668999671936, 0.1946706473827362, -0.26870977878570557], [0.2792823612689972, 0.07994405180215836, 0.41865992546081543, 0.8302041888237, -0.7953442931175232, 0.42090073227882385, -0.46478188037872314, 0.24876055121421814, 0.09283855557441711, -0.12315449863672256, 0.3899831175804138, 0.5481630563735962, -0.08198525011539459, 0.5938078761100769, 0.3607463836669922, 0.03237824887037277, 1.6817280054092407, -0.05506687983870506, -0.3622787594795227, -0.5708177089691162, 0.4709748327732086, 0.1763254553079605, 0.8274069428443909, 0.34704500436782837, 0.3119354248046875, -0.7108036875724792, 0.569811999797821, -0.6841523051261902, -0.4969836473464966, -0.2606971263885498, -0.39327311515808105, 0.15279819071292877, -1.157662272453308, -0.7563204169273376, -0.018284831196069717, -1.0419528484344482, -0.9345486760139465, -0.8157025575637817, -0.050339169800281525, -0.5499638319015503, -0.7055147886276245, 0.38557350635528564, 0.5135002732276917, -0.5854830741882324, 0.1278681606054306, 0.8225971460342407, 0.49797871708869934, 1.1107577085494995, 0.6370333433151245, 0.3182850480079651, 0.3885129690170288, 0.8013519644737244, 0.35985878109931946, -0.8902985453605652, 0.09608777612447739, -0.025245426222682, -0.04133832827210426, -0.3307098150253296, 1.154873013496399, 0.192329540848732, 0.17866919934749603, -0.8863977193832397, 0.018301814794540405, -0.3634396493434906], [0.3930599093437195, -0.023595541715621948, 0.5443258285522461, -0.2665805518627167, -0.4469020962715149, 0.2606853246688843, 0.24295905232429504, -0.25463396310806274, 0.31794047355651855, -0.6220114231109619, -0.7429447770118713, -0.050149619579315186, 0.12782897055149078, -0.29179447889328003, -0.9730189442634583, -0.791898787021637, -0.28755828738212585, -0.3748650550842285, 0.15135636925697327, 0.040227338671684265, -0.7442535758018494, -0.8162088990211487, -0.6666040420532227, 0.05505293980240822, -0.3438073396682739, -0.2082696408033371, 0.0750204473733902, -0.2719123661518097, -0.5084100961685181, -0.047011733055114746, -0.1255062222480774, -0.20716731250286102, 0.30577510595321655, -0.06544177234172821, -0.7539756298065186, -0.3348086476325989, 0.045604098588228226, -0.06594626605510712, 0.6492615938186646, 0.09118189662694931, -0.4788232445716858, -0.8805921077728271, 0.0005410349112935364, 0.41768988966941833, -0.914063572883606, -0.11400929093360901, -0.8730821013450623, -0.8628622889518738, -0.7693825960159302, -0.31713220477104187, -0.4539393186569214, 0.07326555252075195, -0.06561075150966644, 0.41879701614379883, 0.16659528017044067, -0.5626907348632812, -0.15975038707256317, 0.6113065481185913, -0.08932041376829147, -0.24880439043045044, -0.8754642009735107, 0.22966328263282776, 0.3512071967124939, -0.6580451130867004], [-0.4130948483943939, -0.5137024521827698, 0.4679695963859558, 0.5790708661079407, -0.7167120575904846, -0.22766050696372986, -0.7310317754745483, -0.32736673951148987, 0.1834852695465088, -0.17872872948646545, 0.54449462890625, 0.5412744283676147, -0.48014968633651733, 0.41777801513671875, 0.8226476311683655, -0.22255703806877136, 1.5662274360656738, -0.18706484138965607, -0.29172149300575256, -0.6808471083641052, 0.8412101864814758, 0.35634374618530273, 0.6486733555793762, -0.592844545841217, -0.5159670114517212, -0.7924418449401855, 0.618518590927124, -0.734560489654541, -0.7059082388877869, 0.23338383436203003, 1.0807942152023315, -0.1000814363360405, -0.4636271893978119, -0.7806076407432556, -0.18807955086231232, -0.8880619406700134, -0.5685822367668152, -0.7040343880653381, -0.1629239022731781, -0.5304012894630432, -0.8052670955657959, 0.6074403524398804, 0.4767303168773651, -0.6312795877456665, 0.02471633069217205, 0.549014151096344, 0.5978570580482483, 0.72669917345047, 0.69163978099823, 0.1525626927614212, 0.01939675211906433, 0.5889686942100525, 0.25331035256385803, -0.7054500579833984, -0.39105331897735596, -0.3407582938671112, -0.5225479602813721, -0.4767043888568878, 0.7373310327529907, -0.36059489846229553, 0.38175350427627563, -0.6216274499893188, -0.281992107629776, -0.4111815094947815], [-0.5975471138954163, -0.5746011137962341, -0.5056177377700806, -0.6702046394348145, -0.7357874512672424, -0.6788653135299683, -0.5993344783782959, -0.8259717226028442, -0.7220237255096436, -0.2702838182449341, -0.2978193759918213, -0.04018755257129669, -0.5587639808654785, -0.708244264125824, -0.5007413625717163, -0.5194181203842163, -0.03723020851612091, -0.9208435416221619, -0.729590117931366, -0.501402735710144, -0.15884919464588165, 0.03313285484910011, -0.6942108869552612, -0.5128523111343384, -0.8649551272392273, -0.5490999817848206, 0.47559836506843567, -0.6255015730857849, -0.7277825474739075, 0.4623264670372009, -0.6539129018783569, -0.5080821514129639, -0.573272705078125, -0.7027302384376526, -0.41068875789642334, -0.662159264087677, -0.5690733790397644, -0.6478570103645325, -0.6822882890701294, -0.4820449948310852, -0.7252176403999329, -0.0327112078666687, -0.014179602265357971, -0.5597054362297058, 0.11533700674772263, -0.5072727203369141, 0.4948367178440094, -0.6275989413261414, 0.18093106150627136, -0.6530061364173889, -0.7886670827865601, -0.5706434845924377, -0.5457252860069275, -0.5227974057197571, -0.7639769315719604, -0.5865887999534607, -0.5720986127853394, -0.6087064146995544, -0.690913200378418, -0.7051362991333008, -0.6680313348770142, -0.7000626921653748, -0.8372935652732849, -0.82192462682724], [-0.4861045479774475, -0.6216877102851868, -0.4911636412143707, 0.5573291778564453, -0.6061616539955139, -0.5175057649612427, -0.6715178489685059, -0.6368312239646912, -0.5438923835754395, -0.6426669359207153, -0.6792688369750977, 0.4934755861759186, -0.4977208971977234, -0.7000988721847534, 0.02478708326816559, -0.6915349364280701, -0.10891328752040863, -0.5752919316291809, -0.47875431180000305, -0.5537542700767517, -0.5970297455787659, -0.6299244165420532, 0.5826136469841003, -0.5765058398246765, -0.5468406081199646, -0.6723671555519104, 0.49747371673583984, -0.6769105792045593, -0.6096940636634827, -0.6514064073562622, -0.7156350612640381, -0.6663616895675659, -0.7064555883407593, -0.4892866015434265, -0.7035940885543823, -0.5902303457260132, -0.5539071559906006, -0.560590922832489, -0.6066045165061951, -0.6119526028633118, -0.5877143740653992, -0.5660930275917053, 0.6301423907279968, -0.6729083061218262, -0.6023721098899841, -0.6175132989883423, 0.5013302564620972, 0.49695754051208496, 0.6984276175498962, -0.6387719511985779, -0.6710855960845947, -0.6914930939674377, -0.54875648021698, -0.6310614943504333, -0.4795109033584595, -0.6559134721755981, -0.7211045026779175, -0.5042510032653809, 0.6433778405189514, -0.5050251483917236, 0.6684315800666809, -0.5007773041725159, -0.5253674983978271, -0.49581101536750793], [-0.4162631630897522, -0.697624921798706, -0.5581945180892944, -0.7085129618644714, -1.9385100603103638, -0.4863361120223999, -2.691059112548828, -0.6705016493797302, -0.6393392086029053, 0.24440550804138184, 1.3545936346054077, -0.5065708160400391, -0.6961248517036438, -0.4767647385597229, 1.3881889581680298, 2.528733015060425, -0.11431960761547089, -0.1084204688668251, -0.5216115117073059, -0.492861270904541, 1.2475866079330444, 0.7461518049240112, -0.5808385610580444, -0.633117139339447, -0.8358579874038696, -1.271557331085205, 0.5267392992973328, -1.1863932609558105, -3.4774954319000244, 0.6841682195663452, -0.9148122072219849, -1.1939667463302612, -1.2207605838775635, -0.48337823152542114, 2.072669506072998, -0.8760865926742554, -0.94035404920578, -2.07602858543396, -0.7050840258598328, -2.438199043273926, -0.6011545658111572, 0.2921934425830841, 7.727615833282471, -2.4738075733184814, 1.2114604711532593, -0.5955784320831299, 1.4681750535964966, -0.6101000308990479, 1.5660834312438965, -0.9129406809806824, 0.03098563849925995, -0.5970642566680908, -0.5281605124473572, -1.326276183128357, -1.0784516334533691, -0.5194952487945557, -1.0079097747802734, -0.5409684777259827, -0.5835339426994324, -0.683458149433136, -0.6236867308616638, -1.8109914064407349, -0.6582323312759399, -1.5796374082565308], [0.0682942271232605, -0.20783764123916626, -0.28084924817085266, -0.39855796098709106, 0.7747581005096436, -0.15968455374240875, 0.6471700668334961, 0.07396571338176727, 0.050699666142463684, 0.4133703112602234, 0.1217227578163147, -0.8470005393028259, 0.19222013652324677, -0.1898900866508484, -0.49013009667396545, -0.1870262175798416, -0.9640429019927979, 0.3697221577167511, 0.4032171964645386, 0.23410873115062714, -0.5178029537200928, -0.13454243540763855, -0.5100539326667786, 0.13697925209999084, 0.15034960210323334, 1.037369728088379, 0.3070206046104431, 1.1272478103637695, 0.5494345426559448, 0.5428734421730042, 1.0411403179168701, 0.08566194772720337, 1.2130643129348755, 0.4599182903766632, 0.0910305380821228, 1.2628870010375977, 1.0508980751037598, 1.572183609008789, 0.26660457253456116, 0.6821798086166382, 0.7245745062828064, -0.11629395186901093, -6.3353166580200195, 0.7730855345726013, -0.03877119719982147, -0.13530468940734863, -0.5769690871238708, -0.7246143817901611, -0.21451757848262787, -0.0996340960264206, 0.022132281213998795, 0.03364509344100952, -0.08770176023244858, 0.7363230586051941, 0.04029686748981476, -0.049884941428899765, 0.11153511703014374, 0.49326181411743164, -0.8353757858276367, 0.22660426795482635, -0.05223124101758003, 0.7672310471534729, 0.3828093111515045, 0.6303237080574036], [-0.0765589252114296, 0.8791515827178955, 0.28939735889434814, 0.4963575303554535, -0.44189056754112244, 0.4301496744155884, -0.3221946656703949, 0.09809040278196335, -0.0812310129404068, -0.12755532562732697, 0.3903438150882721, 0.6373854279518127, -0.259518563747406, 0.11878958344459534, 0.7813525199890137, 0.333254873752594, 1.380885124206543, -0.11312788724899292, -0.3518180251121521, -0.28231900930404663, 0.824759304523468, 0.4036976397037506, 0.5732852220535278, -0.1857297569513321, 0.2378063201904297, -0.6445773839950562, 0.4834321439266205, -0.6308690309524536, -0.4053541123867035, 0.009618271142244339, -0.4987713396549225, -0.15229564905166626, -0.8004849553108215, -0.32823795080184937, 0.14730577170848846, -0.6988398432731628, -0.7609660625457764, -0.6160075068473816, -0.19003580510616302, -0.4764605164527893, -0.439818799495697, 0.507014811038971, 0.5918828845024109, -0.49917712807655334, 0.20068472623825073, 0.06455831974744797, 0.8002361059188843, 1.0265960693359375, 0.7744091153144836, -0.1011771708726883, 0.2489987313747406, -0.03103308565914631, 0.09930378198623657, -0.3762708306312561, 0.1918473094701767, -0.056855496019124985, -0.21594884991645813, -0.36312276124954224, 0.9064067602157593, -0.07822796702384949, 0.07051973044872284, -0.5686113238334656, -0.2575371265411377, -0.3575904667377472]], "biases": [-0.39838600158691406, -1.0710294246673584, 0.19441606104373932, -0.12263336032629013, 0.037725985050201416, -0.7215598821640015, -0.5481588244438171, 0.292965829372406, -0.2466767430305481, -0.9253438711166382, -0.671129047870636, -0.07290150970220566, 0.34679076075553894, -0.3687392473220825, 0.19662977755069733, 0.03411820903420448, -0.05425973981618881, -0.3006269931793213, -0.1894795447587967, -0.11845280975103378, -0.03274787962436676, 0.0843859538435936, -0.18239575624465942, 0.11851555854082108, -0.015652427449822426, -0.4097374379634857, -0.11015117168426514, -0.8155641555786133, -0.6383122205734253, 0.7008131146430969, 0.18531018495559692, -0.028220482170581818], "activation": "relu"}, {"weights": [[-0.24508890509605408, -0.46939975023269653, -0.2028290182352066, 0.004787084646522999, -0.7400597333908081, 0.5511106848716736, 0.430248886346817, 1.1888149976730347, 0.21913102269172668, -0.33603137731552124, 0.48268648982048035, -0.03863529488444328, 0.8166853189468384, 0.05620074272155762, -0.7423551082611084, -0.8360114097595215, 0.005370423197746277, -0.2572181224822998, -0.45532944798469543, 0.2570508122444153, -0.011697836220264435, 0.499380499124527, 0.5510117411613464, -0.5115344524383545, -0.37927743792533875, -0.4575837552547455, -0.4431142508983612, 0.5480144619941711, 0.5981084108352661, -2.1717848777770996, 0.27120357751846313, -0.04766897112131119]], "biases": [0.6022237539291382], "activation": "linear"}]}